47 128
Circle 0.005283 0.048853 -0.029188 -0.217617 -0.035130 -0.184656 -0.150711 0.133660 0.006208 -0.160346 0.116019 -0.044347 -0.186978 -0.068587 -0.239662 0.023950 -0.004200 0.113651 -0.079952 0.199117 0.088642 0.105663 -0.014824 -0.100536 0.054157 0.025633 -0.181059 0.107906 -0.053589 -0.089439 -0.149453 -0.059999 0.027742 0.089687 0.149815 -0.155605 -0.126732 0.139951 0.143123 0.125466 0.165457 0.001620 0.035680 0.054715 -0.097119 -0.072850 0.078371 0.110777 0.139993 0.105011 0.025688 -0.028867 -0.076334 0.074453 -0.145762 0.018112 -0.120866 -0.187921 -0.095447 -0.046558 0.148303 0.032109 -0.188152 -0.053758 0.001866 0.216172 -0.173750 -0.010292 -0.005062 -0.135467 -0.024642 0.212016 -0.065740 -0.031844 0.129632 0.099023 0.095553 0.026882 -0.106571 0.037286 -0.031878 0.058148 0.025580 0.079689 -0.154202 -0.150452 -0.035869 -0.012434 -0.115919 -0.031346 0.333496 0.007006 0.195701 0.206903 -0.098958 0.002082 0.144388 0.227884 0.228853 -0.277870 -0.065693 0.171060 -0.175862 -0.122236 0.066763 0.034190 -0.261807 -0.302124 0.032667 0.170449 0.148831 0.096353 -0.034752 -0.083633 0.216691 -0.015106 0.055593 -0.104907 0.143902 0.013207 -0.074822 0.003900 0.047864 -0.146904 -0.157013 0.077244 0.054196 0.008997
Polyline -0.032977 0.117304 -0.016277 -0.152068 0.096068 -0.307808 -0.136108 0.058524 0.038332 -0.157149 0.173211 0.004355 -0.068962 -0.101243 -0.109252 0.010077 0.021653 0.202454 -0.206894 0.154832 0.106862 0.185656 -0.030069 0.012427 0.005297 -0.011245 -0.044998 0.090769 -0.091217 -0.064829 0.033904 -0.020197 -0.065032 0.162315 0.100378 -0.040389 -0.044643 0.004682 0.066776 0.121056 0.014149 -0.048248 -0.038578 -0.004082 -0.205036 0.119356 0.035360 0.115528 -0.034154 0.116519 -0.010498 0.025310 -0.151164 0.077507 -0.365264 0.066040 -0.077260 -0.079934 -0.042726 -0.080803 -0.045631 -0.133596 -0.246711 0.147144 -0.120508 0.005115 -0.308122 -0.058014 0.092442 -0.246305 -0.048854 0.217771 -0.212162 -0.082463 0.089536 0.147741 0.026160 -0.002344 0.072367 -0.044038 -0.092756 0.137939 -0.063577 0.113009 -0.215168 -0.216394 0.063409 0.050383 -0.090346 0.105293 0.238638 0.022508 0.028604 0.174015 0.014319 0.059816 0.041252 0.084735 0.264691 -0.255484 0.018639 0.247124 -0.244139 -0.169096 0.126419 0.141712 -0.278875 0.006926 -0.004773 0.201137 0.134180 -0.071338 -0.140543 -0.057020 0.126777 0.093958 -0.077643 -0.075280 0.162495 0.033180 -0.031417 -0.066840 -0.003648 -0.002505 -0.192638 -0.023858 0.005196 0.021628
Split -0.186922 0.041059 0.090604 -0.079086 -0.038535 -0.278035 -0.059048 0.162374 -0.100922 0.034599 0.188401 -0.194435 0.049138 -0.061603 -0.198638 0.063646 0.004386 0.148618 -0.118528 0.204422 0.048151 0.052598 0.022457 -0.066780 0.051902 -0.035664 -0.128623 0.101121 -0.091734 0.044819 -0.036998 -0.041132 0.012818 0.293835 0.011108 0.112321 0.088433 -0.139610 0.106098 0.082865 0.164955 0.012189 -0.119085 0.172141 -0.188141 -0.103836 0.150830 0.042219 0.047903 0.062528 0.102850 -0.078391 0.121145 0.030968 -0.296384 -0.222962 -0.047961 -0.122276 -0.034588 -0.066095 -0.068406 -0.093017 -0.062225 -0.002337 -0.390397 -0.008104 -0.123456 0.020886 0.087504 -0.130437 -0.158448 -0.073831 -0.243093 -0.150201 0.141407 -0.074604 0.020386 -0.101269 0.091224 -0.170299 -0.092135 0.136890 -0.119586 0.128844 -0.171724 -0.118030 -0.113684 -0.084103 -0.050313 0.034855 0.177532 0.084549 -0.160562 -0.096621 -0.054607 0.245747 -0.039187 0.242449 0.157593 -0.375097 0.077045 0.323722 -0.224072 -0.157373 0.049095 -0.140990 -0.161110 -0.053581 -0.093533 0.408424 0.023144 0.106170 -0.075854 -0.145935 0.273555 0.046961 -0.053136 -0.140376 0.177235 0.087370 0.019173 -0.096222 0.006391 -0.150387 -0.181186 0.130144 0.047203 -0.068293
ArrayPolar 0.052802 0.009685 0.004182 -0.227975 -0.025744 -0.190316 -0.157049 0.083744 0.014133 -0.117011 0.151393 -0.145748 -0.190735 -0.204319 -0.214559 -0.004577 -0.034300 0.104567 0.005904 0.196040 0.099717 0.118267 -0.057209 -0.139826 -0.010525 0.042980 -0.271214 -0.026066 -0.062083 -0.141057 -0.194438 -0.115911 -0.046108 0.089250 0.085007 0.084654 -0.110887 0.205991 0.092390 0.025396 0.212959 0.036490 -0.046875 0.105167 -0.126951 -0.086952 0.005753 0.153295 0.094041 -0.021856 0.012430 -0.051778 -0.046916 0.133189 -0.170604 -0.122862 -0.035344 -0.148761 -0.083226 -0.049705 0.185708 0.059019 -0.198218 -0.012708 -0.098657 0.256138 -0.100905 0.008413 -0.063911 -0.142274 -0.116571 0.059618 -0.161921 -0.070449 0.141111 0.065605 0.110180 0.074425 0.071043 0.021508 0.030846 -0.082717 -0.057408 0.057690 -0.212612 -0.179966 -0.073427 0.046297 -0.050389 0.001709 0.327869 0.012711 0.178794 0.121798 -0.094412 0.133735 0.124807 0.290307 0.302597 -0.271352 0.021095 0.162851 -0.124772 -0.058668 -0.066989 0.044959 -0.253894 -0.268464 -0.017729 0.232305 0.147859 0.041059 -0.105850 -0.140230 0.206248 -0.042752 0.130864 -0.056074 0.019239 0.178110 -0.085450 -0.017269 0.052917 -0.229772 -0.147897 0.121150 -0.024504 -0.052394
Arc 0.096677 -0.379999 -0.029142 -0.327900 0.199139 -0.271596 -0.273009 -0.026323 -0.158907 -0.301865 -0.054723 0.091635 0.193771 0.004205 0.018255 0.049752 -0.426289 0.054770 -0.166431 0.059972 0.069197 0.014953 0.017591 0.290162 -0.113280 0.019581 0.328546 -0.182561 -0.224739 -0.254260 -0.257306 -0.232435 -0.328805 0.233960 0.134549 0.132484 0.157075 0.010361 0.195884 -0.170667 -0.188220 0.417222 -0.215403 0.120331 -0.437849 -0.003912 0.098046 0.107654 0.067547 0.346537 -0.197868 -0.215667 0.083043 0.043379 -0.253706 0.140253 -0.104039 -0.244408 0.023108 -0.030352 0.214690 -0.069272 -0.346601 0.219102 0.057932 -0.121370 -0.276840 -0.157862 -0.077253 0.130358 -0.005023 0.299113 -0.402372 0.329862 -0.103116 0.088769 -0.062079 0.431234 -0.092652 0.153780 0.040319 0.003095 -0.326970 -0.269249 -0.149134 -0.239987 0.289785 0.169881 -0.001987 0.178015 0.043803 -0.016793 0.245241 0.196399 0.306474 0.063384 -0.000882 -0.020504 0.414366 -0.045310 0.315819 0.429331 -0.235434 0.019586 -0.096499 0.225095 -0.150281 0.212694 -0.004885 0.220544 0.071688 -0.122807 -0.130149 0.293692 0.224271 0.147307 0.068339 0.079960 0.255596 0.204544 -0.022576 0.027843 -0.062876 -0.285116 -0.036007 0.126528 -0.056395 0.132156
Line -0.034156 -0.235720 -0.008080 -0.109424 -0.129862 -0.124924 -0.133839 0.131574 -0.031509 -0.207338 0.233349 -0.201846 0.010846 -0.047738 -0.119468 -0.012882 -0.143140 -0.004627 0.162132 0.128779 0.104213 -0.073588 -0.035396 -0.089970 -0.174363 0.038667 0.033843 0.138467 -0.099157 -0.151674 -0.230755 -0.189522 0.002685 0.218810 0.193814 -0.059338 0.159623 0.108079 0.148915 0.028856 0.268650 0.014842 -0.142992 0.163862 -0.211015 -0.177514 0.092795 0.198960 0.243165 0.037643 0.016574 -0.051221 0.069511 0.028677 -0.226729 -0.119868 -0.122799 -0.144900 0.066773 0.104531 0.251030 0.038688 -0.078834 -0.015885 -0.100397 0.131951 -0.204426 0.143100 -0.177524 0.021688 -0.010817 0.109621 -0.127469 0.088475 0.079002 0.187245 -0.091857 0.183261 -0.120188 -0.020945 -0.088428 -0.039338 -0.038185 -0.050824 -0.204013 -0.208467 -0.143069 -0.057172 0.151759 -0.021425 0.344950 0.004515 0.098705 0.090066 -0.043339 -0.009017 0.100782 0.031972 0.373725 -0.278647 -0.000288 0.289250 -0.235236 0.014244 -0.030130 -0.058996 -0.057548 -0.047870 0.029985 0.230217 0.027989 0.098728 0.011309 0.001701 0.067573 0.107013 0.160395 -0.020777 0.147686 0.149877 -0.038694 -0.015358 0.161134 -0.240338 0.071449 0.151491 0.038676 -0.027793
ExtrudeSrf -0.228179 0.013719 -0.081123 -0.215780 0.129408 -0.062835 -0.378763 0.144915 -0.093181 -0.173626 -0.106500 -0.016446 -0.070135 -0.146989 -0.081409 0.073815 -0.228433 0.053789 -0.222103 0.169243 -0.032965 -0.072532 -0.193535 0.020217 -0.035275 -0.121780 0.137868 -0.019921 -0.055552 -0.068594 -0.069988 -0.306494 -0.165612 -0.009771 -0.029646 0.139113 -0.158323 0.169330 0.188956 0.038589 -0.053837 0.235195 -0.060764 0.037386 -0.145786 -0.036835 0.158545 0.034614 0.111428 -0.014876 -0.033070 -0.071355 0.074107 0.004475 -0.049201 0.006587 -0.093015 -0.136760 0.021314 -0.007798 0.081868 -0.045122 -0.411216 -0.121384 -0.152396 0.113806 -0.087983 -0.123639 0.080558 -0.167748 0.005268 0.203819 -0.449306 -0.037879 0.005788 -0.120637 0.052514 0.164894 0.087225 0.157754 0.134350 -0.080886 -0.248547 0.041105 -0.189959 -0.137602 0.017787 0.067377 -0.188179 0.043059 0.180765 -0.003347 0.087136 0.099679 0.087979 0.142876 0.047070 0.148367 0.325172 -0.210354 0.232741 0.165343 -0.159510 0.005556 0.060036 0.060656 -0.157613 -0.011322 -0.015077 0.328110 0.134893 0.214121 -0.112476 0.000506 0.223594 0.074876 0.122516 -0.155716 0.235358 0.019372 -0.021977 -0.057499 -0.109430 -0.063732 -0.158735 0.226516 0.143168 -0.011993
Paste -0.021949 0.014052 0.041960 -0.280274 0.054654 -0.207347 -0.244979 0.121232 -0.041537 0.011869 -0.101888 0.207304 -0.036277 -0.064953 -0.077533 0.246757 -0.052057 0.065304 -0.323726 0.086485 0.041923 0.098847 -0.041593 0.141087 0.305996 -0.155029 0.075946 0.056927 -0.067719 0.079025 -0.186726 0.059636 -0.008135 0.016344 -0.113772 -0.006988 -0.046208 -0.039902 0.129460 0.048571 -0.040581 0.191783 -0.105315 0.153990 -0.312331 -0.210705 0.163817 -0.037004 0.118551 0.266952 -0.012555 -0.086853 0.230117 0.000487 -0.247601 0.014211 -0.224230 -0.171688 -0.248510 -0.140697 -0.079788 0.084319 -0.162083 -0.025819 -0.027357 0.109375 -0.187129 -0.335208 0.089234 0.201314 -0.068992 0.219362 -0.324223 -0.118733 0.023531 -0.129131 0.087022 0.135202 -0.035509 -0.059520 -0.077628 0.217946 -0.050584 0.045177 -0.039632 -0.093395 -0.035925 -0.197570 -0.241290 0.086853 0.101120 -0.011783 -0.126803 -0.053245 -0.090672 0.165487 -0.017462 0.267413 0.279780 -0.293846 0.002388 0.283497 -0.027162 -0.007163 0.133357 -0.038276 -0.100652 -0.234374 -0.007386 0.134938 0.006376 0.053553 0.049543 -0.058852 0.355615 -0.022496 -0.277824 -0.064316 0.123336 -0.082241 0.040605 0.049652 0.106187 -0.112030 -0.349854 0.171001 0.058894 0.197169
ExtrudeCrv -0.158014 -0.228509 0.054237 -0.248719 0.017797 -0.232279 -0.259451 0.085679 0.016627 -0.210089 0.036422 0.007879 0.041103 -0.065080 -0.017536 0.216388 0.087474 -0.135903 -0.172422 0.038139 0.291061 -0.130126 0.030520 0.035523 0.011511 -0.118876 0.396870 -0.012360 -0.131999 -0.113361 -0.318103 -0.102007 -0.101294 0.156715 0.027330 -0.038693 0.266713 -0.026199 0.093230 0.041004 -0.053691 0.185000 -0.275761 0.266280 -0.383670 -0.196107 0.111687 0.156745 0.295177 0.174494 -0.242825 0.211734 0.207146 -0.053274 -0.453362 0.042560 -0.278201 -0.253348 0.031086 0.160077 0.178950 -0.066970 -0.186620 0.046849 -0.080540 0.046990 -0.249816 -0.062591 -0.014628 0.114970 -0.101826 0.363001 -0.234538 -0.114290 -0.083520 0.098703 -0.107696 0.274430 -0.039700 0.055781 -0.295020 0.159310 -0.022072 -0.040714 -0.332436 -0.244861 -0.173445 -0.108305 -0.011575 0.210861 0.338618 -0.229966 -0.097347 0.015434 0.012502 -0.199042 0.088997 0.083202 0.505699 -0.299333 0.109495 0.443844 0.003083 0.030120 0.180699 -0.046590 -0.149337 0.028339 0.071762 0.233415 0.077625 0.187893 0.072540 0.053793 0.009264 0.204726 -0.130411 0.039509 0.219189 0.116671 0.087652 0.003786 0.153278 -0.228672 -0.012758 0.153932 -0.009462 0.044765
PlanarSrf 0.143517 0.003157 0.055257 -0.110143 0.023632 -0.311944 -0.062479 0.018725 -0.109145 0.010779 0.231087 0.025941 0.017705 -0.278802 -0.176417 0.041499 -0.144435 0.244483 0.006771 0.162313 -0.043067 0.313548 0.065196 0.009536 -0.004709 -0.060489 -0.337901 0.259147 -0.109214 -0.155189 -0.018715 0.082582 -0.044454 0.254981 0.133442 -0.145636 -0.048361 0.016178 -0.022207 0.175009 0.250268 -0.126940 -0.044679 0.003035 -0.100014 -0.071311 -0.156243 0.054724 -0.109257 -0.022299 0.274923 -0.170146 -0.094955 0.062580 -0.330324 -0.088581 -0.156119 -0.103270 -0.092255 -0.200711 -0.042979 0.073561 -0.011671 0.163242 -0.016106 0.194359 -0.269061 -0.113731 -0.152867 -0.062075 -0.181157 -0.036794 -0.094648 0.111879 0.239477 0.200466 0.106978 0.112963 0.096534 -0.092557 0.007532 0.086368 -0.185629 0.197554 0.027437 -0.326964 0.017818 0.017484 0.023229 0.049558 0.226951 0.125038 0.047355 0.101767 -0.126512 0.421930 -0.001093 0.026873 0.221773 -0.528335 -0.092977 0.191185 -0.098062 -0.278969 0.052331 0.103751 -0.130419 -0.173145 0.045945 -0.042451 -0.032959 -0.132003 -0.259273 -0.115294 0.077542 0.056423 -0.054007 -0.010460 0.071100 0.091548 -0.005492 0.119382 0.049702 -0.080822 -0.182274 -0.000584 0.043200 0.089894
Helix -0.004653 -0.226141 -0.021584 -0.143237 0.137140 -0.248641 -0.296106 -0.030069 -0.043333 -0.275324 0.135909 0.090943 0.169613 -0.259911 0.041681 0.111204 -0.112868 0.044087 -0.175551 0.047264 0.226389 0.109774 0.022911 0.067102 -0.121753 -0.104454 0.283367 0.052513 -0.146749 -0.276257 -0.160844 -0.093791 -0.253473 0.187494 0.094906 -0.162761 0.155937 -0.021500 -0.044369 0.043347 -0.042967 0.034573 -0.244796 0.034224 -0.302017 0.007020 -0.078081 0.197057 0.026305 0.066484 -0.142544 0.122445 -0.077049 -0.015872 -0.400110 0.151081 -0.267773 -0.182550 0.112566 0.082691 0.087624 -0.118733 -0.236441 0.243731 0.041698 0.021370 -0.343619 -0.101702 -0.078116 -0.056769 -0.103153 0.347854 -0.182595 0.117904 0.002216 0.241835 -0.065690 0.371457 0.153307 0.123470 -0.143295 0.037405 -0.261540 -0.012875 -0.266325 -0.428616 0.099135 0.139992 0.035213 0.222730 0.288077 -0.131606 0.085072 0.229429 0.161058 0.015271 0.002817 -0.187497 0.438913 -0.364155 0.161975 0.353213 -0.025602 -0.087281 0.185043 0.199727 -0.224005 0.275363 0.104535 0.020407 -0.002456 -0.038150 -0.214735 0.119416 -0.205390 0.326447 -0.038392 0.059647 0.196437 0.206305 0.139798 0.142538 -0.044919 -0.099471 -0.014439 -0.021513 0.005483 0.120467
Divide -0.196864 -0.212446 0.097347 -0.083510 0.060044 -0.020078 -0.440240 0.249524 -0.314696 0.016020 -0.061798 -0.007172 0.233890 -0.099663 -0.041282 0.171673 -0.480854 0.122539 -0.301942 0.133616 -0.013893 -0.128599 -0.134496 0.123393 0.105831 -0.263463 0.179955 0.124039 -0.128726 0.139056 -0.220779 -0.336282 -0.311371 0.155920 -0.253051 0.227141 -0.030154 0.006735 0.225529 0.042801 -0.122186 0.453278 -0.277243 0.150753 -0.306441 -0.119875 0.277281 -0.146134 0.036979 0.115614 0.105160 -0.286389 0.384381 -0.051443 -0.060688 -0.276134 -0.164213 -0.129306 0.064126 -0.169590 -0.076031 0.161624 -0.212519 -0.113892 -0.302634 0.140622 -0.016453 -0.383388 0.103254 0.116648 -0.016292 0.025459 -0.570752 -0.089791 -0.107900 -0.297673 0.127368 0.312233 0.153117 0.016394 0.064719 0.059078 -0.308025 -0.104739 -0.108609 -0.177860 0.086956 -0.033570 -0.235163 0.000322 0.027569 0.153121 -0.209573 -0.044360 -0.009879 0.427257 -0.129729 0.083079 0.390580 -0.365996 0.407955 0.399935 -0.135883 0.002675 0.110997 -0.098771 -0.004024 0.102135 -0.209687 0.539540 -0.269598 0.214958 -0.111648 -0.042808 0.382976 0.118129 -0.117752 -0.139082 0.222644 -0.132000 0.170002 -0.037740 -0.046054 -0.045883 -0.274182 0.249666 0.234988 0.121443
Copy -0.082275 -0.310200 0.081501 -0.110806 -0.004486 0.090393 -0.332491 0.179441 -0.289227 -0.162992 0.094358 -0.242800 0.076268 -0.124808 -0.146322 -0.072157 -0.444376 0.135002 -0.000765 0.243092 0.030364 -0.202850 -0.098089 -0.097489 -0.222897 -0.093038 -0.083669 0.043467 -0.217175 -0.165220 -0.196469 -0.501668 -0.392594 0.243880 -0.011335 0.163032 -0.038152 0.240650 0.244759 0.142101 -0.032903 0.371456 -0.174967 0.114078 -0.124188 0.051983 0.103000 0.007975 0.019792 -0.129486 0.074737 -0.231863 0.070475 0.010319 0.055341 -0.236278 -0.035166 -0.117287 0.269523 -0.077077 0.283541 0.170789 -0.269973 -0.081948 -0.191658 0.221744 0.020794 -0.155248 -0.063338 -0.231403 0.017562 -0.059102 -0.342904 0.125506 -0.080698 0.016336 0.210426 0.373244 0.068205 0.140234 0.137174 -0.180121 -0.334558 -0.117650 -0.254093 -0.302292 0.126905 0.257954 0.019027 -0.076306 0.208970 0.097994 0.186772 0.216313 0.041419 0.303174 0.028345 -0.013292 0.366567 -0.230013 0.399680 0.257351 -0.183123 -0.085469 -0.016676 0.090583 -0.160976 0.006680 -0.143742 0.465746 -0.110917 0.233484 -0.230063 -0.002853 0.177848 0.118763 0.274081 -0.112811 0.125633 0.034411 0.009481 -0.042036 -0.059729 -0.169946 0.025571 0.228486 0.194534 -0.140871
Join 0.042316 -0.215703 0.083368 -0.053995 -0.079351 -0.271385 -0.156506 0.052857 -0.109883 -0.035170 0.259253 -0.046128 0.170726 -0.215099 -0.020886 0.062756 -0.236037 0.170238 0.001143 0.106537 0.019723 0.128345 -0.045275 -0.006645 -0.103605 -0.029022 -0.058967 0.224886 -0.129757 -0.038981 -0.054264 -0.033322 -0.032899 0.214567 -0.045328 0.117777 0.175536 -0.008486 0.145468 0.032215 0.194156 0.070133 -0.274165 0.181337 -0.395452 -0.136416 0.017637 0.106703 0.040677 0.021013 0.138070 -0.216921 0.106903 0.106609 -0.443314 -0.296928 -0.163697 -0.023695 -0.000177 -0.080443 -0.071020 0.163945 -0.020198 0.137879 -0.260649 0.035414 -0.267637 -0.095525 -0.072012 0.101478 -0.103376 -0.054678 -0.331893 -0.001853 0.141952 0.178043 -0.044451 0.186175 0.113147 -0.255455 -0.092126 0.026007 -0.090697 -0.097687 -0.151278 -0.301322 -0.048555 -0.119693 0.158856 0.040512 0.210765 0.125521 -0.191206 -0.094256 -0.094508 0.371229 -0.049069 -0.009811 0.399465 -0.436941 0.037886 0.379086 -0.247164 -0.038455 0.059113 -0.080593 0.062122 0.074328 -0.060591 0.213276 -0.138997 -0.189108 -0.085830 -0.016330 0.097807 0.131840 -0.152932 0.000751 -0.038671 0.104455 0.038212 -0.000456 0.188322 -0.107382 -0.141825 0.069275 0.070666 0.026714
Rotate -0.153620 0.034016 -0.064985 -0.280364 0.377799 -0.373810 -0.087396 0.133704 -0.161468 -0.130721 0.044979 -0.113358 0.132356 0.064473 -0.340998 -0.059269 -0.350005 0.190491 -0.302023 0.320876 -0.108771 0.207883 0.155658 0.289125 0.098016 -0.081835 -0.101494 -0.178251 -0.099687 -0.165829 0.037330 -0.168020 -0.275647 0.394810 0.224798 0.196587 -0.121747 -0.129504 0.107119 -0.070604 0.058999 0.207841 0.121631 -0.043497 -0.104876 0.087755 0.077257 -0.003625 -0.130029 0.247880 -0.043390 -0.194127 0.108354 0.089875 -0.046636 0.097517 0.163096 -0.270726 -0.028649 -0.131776 -0.005050 -0.354304 -0.262654 0.073747 -0.198412 -0.207871 -0.068271 -0.054424 0.109859 -0.265904 -0.079298 0.153428 -0.380063 0.143092 0.027013 -0.207717 -0.009735 -0.051504 0.147214 0.079901 0.180673 0.128881 -0.478142 0.110609 -0.103684 0.018839 0.225115 0.239649 -0.287939 0.064518 -0.142935 0.081234 0.219395 0.168716 0.297140 0.260381 -0.015433 0.319669 0.074819 -0.175482 0.236870 0.328226 -0.329527 -0.202276 -0.197320 0.253426 -0.374005 -0.095001 -0.130330 0.469336 0.249354 0.078429 -0.234069 0.103855 0.533186 -0.005029 0.088361 -0.132553 0.456180 0.158350 -0.205397 -0.190990 -0.347280 -0.230228 -0.358573 0.174341 -0.026878 -0.031208
Trim 0.145906 0.118002 0.042351 -0.274472 0.042394 -0.368071 0.014585 0.186205 -0.045518 -0.150327 0.121544 -0.104608 -0.142750 0.148295 -0.266294 -0.062629 -0.008263 0.178844 -0.056943 0.164078 -0.018099 0.026769 0.154728 0.016647 0.101503 0.188329 -0.272510 0.038567 -0.215120 -0.130774 -0.087887 -0.031317 0.094016 0.348421 0.306933 -0.049884 -0.003133 0.004766 0.240199 0.108176 0.079153 0.092260 0.127180 0.200467 -0.110947 0.025169 0.161370 0.041374 0.103349 0.307550 0.058043 -0.233830 -0.148657 0.108242 -0.197872 -0.007908 -0.011071 -0.246740 -0.189696 -0.154944 0.216073 -0.066698 -0.124892 0.080880 -0.095538 0.036908 -0.127846 0.004669 -0.009111 -0.231244 -0.097033 0.077416 -0.117181 0.075062 0.151819 0.094182 0.076178 -0.137219 -0.315458 0.004989 -0.014029 0.097962 0.040349 0.068509 -0.018343 -0.088078 0.006824 -0.071027 -0.139101 -0.002203 0.175285 0.008177 0.275937 0.146085 -0.001847 0.040800 0.111006 0.404370 0.121781 -0.103749 -0.117619 0.340542 -0.325481 -0.295212 -0.063819 -0.024347 -0.265078 -0.372723 -0.043279 0.308071 0.260219 -0.062954 -0.026654 -0.016111 0.489604 -0.152785 0.077790 -0.070472 0.234235 0.018609 -0.145711 -0.041460 0.097637 -0.358928 -0.174350 0.091823 -0.023234 -0.042522
GumballTransform 0.167979 0.248794 0.062806 -0.157663 0.027697 -0.558074 0.044118 0.190493 0.088720 -0.093092 0.266099 -0.030556 -0.072451 0.046773 -0.198486 -0.040901 0.103188 0.342947 -0.172490 0.178798 -0.013083 0.190253 0.077682 -0.077670 0.110057 0.085332 -0.220669 0.336461 -0.183545 0.037419 0.147081 0.076556 0.283346 0.339886 0.172106 -0.209285 0.010296 -0.151596 0.292725 0.285295 0.208092 -0.163081 0.069906 0.187711 -0.338244 0.060382 0.093750 0.038336 0.043162 0.257161 0.214016 -0.176199 -0.215148 0.160445 -0.631218 -0.077580 -0.187965 -0.173109 -0.168618 -0.292807 -0.114162 -0.075607 -0.080876 0.257043 -0.231773 0.065993 -0.409212 -0.096224 0.118241 -0.293946 -0.053852 0.194790 -0.232719 -0.200831 0.331922 0.197578 0.021133 -0.292460 -0.203529 -0.214154 -0.157707 0.327531 0.159908 0.185611 -0.079630 -0.224590 -0.069841 -0.260281 -0.126134 0.054287 0.381465 0.091460 -0.074435 0.069551 -0.162642 0.148669 0.023266 0.255470 0.228861 -0.412726 -0.263224 0.454276 -0.411228 -0.311248 0.266136 -0.039704 -0.168819 -0.258852 -0.088498 0.283445 0.118804 -0.235911 -0.018691 -0.126711 0.377802 -0.044694 -0.237318 -0.149756 0.169018 -0.108375 -0.071478 0.007208 0.270337 -0.042056 -0.350109 -0.036739 0.087529 -0.006028
Block 0.091928 0.059820 -0.092068 -0.104411 0.269294 -0.131267 -0.153501 0.176853 -0.114555 -0.162796 0.055015 0.155447 0.034863 -0.201126 -0.216962 0.078202 -0.273987 0.082179 -0.181402 0.127514 -0.008519 0.276789 0.144536 0.222970 0.231975 -0.155259 -0.078667 0.130364 -0.048530 -0.160705 -0.220739 0.097707 -0.124149 0.206921 0.283812 -0.422015 -0.143807 -0.022959 -0.019661 0.129457 0.214228 -0.100821 0.112706 -0.120673 0.048613 -0.146720 -0.035643 0.014883 -0.050076 0.189927 0.169562 -0.085375 -0.076129 -0.018185 0.005134 0.277163 -0.157730 -0.315244 -0.155674 -0.146165 0.108821 -0.157846 -0.094276 0.099196 0.298592 0.287170 -0.177865 -0.237001 -0.155856 -0.015675 -0.098226 0.295843 -0.040891 0.180258 0.027024 -0.035418 0.084124 0.252028 0.026934 0.278457 0.141036 0.111980 -0.340131 0.276328 0.127920 -0.214946 0.149407 0.063582 -0.274945 0.038356 0.147332 -0.012986 0.211504 0.334057 0.058827 0.234405 0.040711 0.112139 0.153548 -0.435494 -0.123885 0.091918 -0.006698 -0.254524 0.044906 0.152225 -0.285386 -0.266804 0.009636 -0.083349 -0.011226 0.205425 -0.224036 -0.116714 0.266858 0.091490 0.023414 -0.006116 0.303617 -0.043538 0.074642 0.173347 -0.113923 -0.192426 -0.237270 0.068046 0.065338 0.365869
Offset 0.276313 -0.267125 0.027669 -0.408624 0.131887 -0.375924 -0.287913 -0.162013 0.007388 -0.325826 0.044783 0.226697 -0.022217 -0.289041 0.010111 0.187152 -0.058118 0.051356 -0.155891 0.006185 0.261568 0.223261 0.069192 0.093789 -0.043670 -0.010211 0.142618 -0.109877 -0.205737 -0.386578 -0.327002 -0.011121 -0.266081 0.132084 0.126693 -0.103777 0.150492 0.143069 0.001674 -0.013522 -0.107695 0.155148 -0.260863 0.168064 -0.421563 -0.059632 -0.160389 0.256675 0.093224 0.193739 -0.206116 0.068296 -0.148765 0.105386 -0.495827 0.156575 -0.279239 -0.248927 -0.099784 0.008589 0.249845 0.062302 -0.325941 0.301274 0.245837 0.147273 -0.392220 -0.224139 -0.201838 0.099567 -0.202248 0.361901 -0.175432 0.163454 0.007391 0.385762 0.009128 0.495576 0.016713 0.125332 -0.149673 0.005934 -0.143952 -0.127272 -0.222113 -0.493067 0.101940 0.118199 0.039430 0.284723 0.347205 -0.186369 0.280184 0.284669 0.109062 0.006243 0.112143 0.038199 0.561326 -0.285418 0.080894 0.370741 0.056017 -0.099268 0.052153 0.257333 -0.268398 -0.022031 0.188066 -0.125532 0.116737 -0.237792 -0.198652 0.138404 -0.070064 0.161769 -0.102958 0.202868 0.048101 0.282909 0.057981 0.190475 0.085585 -0.316860 -0.075760 -0.008258 -0.121971 0.185311
CurveBoolean 0.204861 0.201898 -0.030657 -0.246509 0.144433 -0.302078 -0.031917 0.130738 -0.005511 -0.153089 0.137356 0.018950 -0.157253 -0.047858 -0.287506 -0.062159 -0.035895 0.219963 -0.144202 0.190455 0.030196 0.271560 0.130823 0.006748 0.172306 0.028829 -0.383379 0.038631 -0.108771 -0.182807 -0.076730 -0.000356 -0.026149 0.232185 0.251587 -0.183561 -0.194642 0.088520 0.075010 0.158553 0.155387 -0.054812 0.191224 0.032830 -0.043362 0.069079 -0.018187 0.080214 -0.052278 0.181554 0.094983 -0.089457 -0.239623 0.143181 -0.085318 0.084705 -0.010785 -0.231303 -0.194323 -0.203326 0.122560 -0.045962 -0.149120 0.084490 0.084994 0.184553 -0.142048 -0.106877 -0.028386 -0.286856 -0.089330 0.164788 -0.053208 0.051112 0.131042 0.085026 0.143582 -0.018503 -0.088157 0.068291 0.045173 0.085422 -0.090301 0.193542 -0.039119 -0.179326 0.059711 0.045276 -0.268253 0.003970 0.199215 0.017721 0.327186 0.316349 0.000234 0.130760 0.065851 0.348643 0.099580 -0.228810 -0.109115 0.199969 -0.176455 -0.272302 -0.010713 0.171492 -0.374993 -0.434341 0.000344 0.111046 0.174427 -0.031499 -0.163550 -0.108061 0.367184 -0.089861 0.014198 -0.066918 0.172016 0.035669 -0.112165 0.064591 -0.021247 -0.257805 -0.331623 0.065651 -0.013742 0.054866
Sweep1 -0.060701 -0.183059 0.001275 -0.027212 -0.059698 -0.104399 -0.309589 0.075973 -0.076826 -0.181323 0.183033 -0.000646 0.063891 -0.249997 0.026974 0.092650 -0.022396 0.018185 -0.068005 0.070818 0.246360 -0.102484 -0.089971 -0.140521 -0.168114 -0.117465 0.225596 0.184763 -0.096605 -0.057770 -0.205798 -0.182374 -0.123732 0.088419 -0.015592 -0.158616 0.147047 0.041541 0.082220 0.192227 -0.034733 0.053410 -0.243590 0.144602 -0.255348 -0.051622 -0.017683 0.096133 0.145722 -0.050189 0.010243 0.135191 0.030039 -0.018216 -0.421210 -0.091977 -0.287099 -0.116579 0.178524 0.040364 0.109513 0.074749 -0.164057 0.108240 -0.079952 0.206262 -0.274352 -0.098896 -0.080358 -0.041734 -0.059253 0.229202 -0.161237 -0.096180 -0.003980 0.197432 0.015113 0.255901 0.107301 0.089553 -0.184740 0.043684 -0.085791 -0.022812 -0.291093 -0.432955 -0.093140 0.015967 0.005522 0.156476 0.451648 -0.077934 -0.113129 0.145919 -0.077890 -0.028852 0.034530 -0.160067 0.527987 -0.428544 0.156038 0.303600 0.040504 -0.043255 0.283518 -0.026146 -0.100724 0.170615 0.052189 0.143104 -0.134218 0.067101 -0.119242 -0.031424 -0.203318 0.281605 -0.082036 0.000129 0.134626 0.068616 0.191898 0.100526 0.158349 -0.006770 0.061343 0.006099 0.095268 0.067695
Spiral -0.066454 0.049100 0.001386 -0.102219 0.166295 -0.128577 -0.136236 0.130758 -0.155971 0.022210 0.130853 0.007110 0.056886 -0.376638 -0.278404 0.145741 -0.102586 0.092506 -0.138898 0.199842 -0.032083 0.238954 0.085272 0.020864 0.163230 -0.270920 -0.234869 0.183008 -0.008905 -0.159716 -0.139504 0.072403 -0.126612 0.237629 0.108803 -0.267830 -0.121536 -0.029000 -0.115946 0.239229 0.307408 -0.179800 0.040357 -0.033153 0.104686 -0.226160 -0.159634 0.020333 -0.061493 -0.126648 0.244586 0.026582 0.041709 -0.023196 -0.083379 0.033965 -0.209395 -0.255167 -0.064318 -0.115928 0.002857 -0.069513 -0.045084 -0.011364 0.060835 0.329787 -0.098433 -0.152929 -0.160475 -0.101050 -0.260841 0.079287 -0.062248 0.013183 0.163490 -0.031775 0.128227 0.146539 0.255256 0.133358 0.071196 0.064522 -0.383875 0.369511 0.024525 -0.292735 -0.067993 0.069322 -0.185678 0.050215 0.213173 -0.036672 0.036801 0.170106 -0.063505 0.415489 -0.001541 0.097808 0.174325 -0.669007 -0.031588 0.103382 0.148394 -0.281048 0.080633 0.065016 -0.250645 -0.298186 0.058962 -0.064712 -0.046974 0.247739 -0.269314 -0.217105 0.090379 0.105918 0.013894 -0.086805 0.220887 0.080246 0.080332 0.192093 -0.112323 -0.127696 -0.247886 0.123933 0.090277 0.163831
InterpCrv -0.153420 -0.132027 -0.072901 -0.190869 0.379754 -0.094490 -0.388515 0.223899 -0.321055 -0.164770 -0.167404 0.068352 0.258523 -0.084364 -0.133072 0.027907 -0.643394 0.118961 -0.358570 0.225713 -0.102699 0.055580 0.016067 0.338124 0.062055 -0.190329 0.149939 -0.064653 -0.116413 -0.184826 -0.185612 -0.335871 -0.447222 0.227630 0.129706 0.024366 -0.205816 -0.002352 0.129135 -0.015409 -0.109193 0.389167 0.011975 -0.095239 -0.086255 -0.006139 0.144232 -0.090058 -0.113144 0.183701 0.020826 -0.277721 0.140875 -0.086553 0.179991 0.181551 -0.060733 -0.312124 0.042908 -0.132366 0.071734 -0.199656 -0.354154 -0.022196 0.012599 0.028450 -0.024212 -0.300114 0.031513 -0.100706 0.003754 0.261069 -0.429492 0.308852 -0.117244 -0.313016 0.074549 0.369409 0.079796 0.375243 0.299795 -0.004673 -0.665764 0.030533 0.001849 -0.138405 0.375900 0.261210 -0.374782 0.034928 -0.125836 0.061342 0.254487 0.266113 0.344395 0.365929 -0.068900 0.039472 0.176659 -0.231417 0.397479 0.264125 -0.190831 -0.130496 -0.021830 0.245436 -0.260162 0.081951 -0.118414 0.334416 0.005306 0.296299 -0.299793 0.117023 0.425722 0.150436 0.180400 -0.118051 0.476399 0.018466 0.007637 0.044240 -0.382272 -0.173841 -0.248661 0.234065 0.124591 0.205475
EdgeSrf -0.161171 0.224679 0.034782 -0.163549 -0.087676 -0.276523 -0.134826 0.204042 0.036177 -0.047068 0.181478 -0.208370 -0.265186 -0.162877 -0.262142 0.022878 0.085295 0.188292 -0.039431 0.269621 -0.006631 0.078680 -0.163666 -0.195565 -0.008970 0.031651 -0.312140 0.185718 -0.051295 0.023736 0.003954 -0.086540 0.115373 0.128256 0.053175 0.121285 -0.158083 0.161841 0.199064 0.168267 0.285214 -0.051635 0.005982 0.126262 -0.126266 -0.095585 0.131207 0.107760 0.133707 -0.068001 0.143096 -0.071361 -0.068647 0.088292 -0.309802 -0.180915 -0.078192 -0.094860 -0.130211 -0.083169 0.041381 -0.015340 -0.251660 -0.127883 -0.340268 0.229615 -0.196344 0.065333 0.079897 -0.286389 -0.101644 -0.002087 -0.307836 -0.242976 0.248937 0.038473 0.081171 -0.137095 -0.002822 -0.150787 -0.003384 0.017883 0.064844 0.234079 -0.233519 -0.117878 -0.191668 -0.115682 -0.068510 -0.011518 0.390966 0.091833 -0.009746 0.004459 -0.186833 0.225997 0.097803 0.363189 0.265194 -0.398854 -0.072053 0.178560 -0.297991 -0.152896 0.064903 -0.113216 -0.197983 -0.319150 -0.032515 0.365707 0.222176 0.144050 -0.044289 -0.271995 0.337381 -0.076493 0.097430 -0.213928 0.115991 0.043084 -0.114904 -0.116017 0.100962 -0.083834 -0.225596 0.187121 0.079250 -0.138316
Contour -0.057330 -0.256615 0.085720 -0.060853 -0.014096 -0.284747 -0.228073 0.000951 -0.044535 -0.179310 0.223256 0.016502 0.190428 -0.137381 0.045708 0.168445 -0.027479 0.070993 -0.145343 0.017662 0.198841 0.015928 0.030276 -0.011803 -0.072227 -0.124412 0.307625 0.201787 -0.157833 -0.068419 -0.108603 -0.055593 -0.078227 0.233990 -0.004981 -0.137747 0.326964 -0.145817 0.068594 0.079271 0.022716 0.027542 -0.340507 0.180610 -0.406339 -0.106965 0.031067 0.121879 0.136972 0.103860 -0.049545 0.082372 0.070477 -0.029841 -0.551326 -0.097392 -0.329369 -0.135822 0.115198 0.034880 -0.036417 -0.021064 -0.080531 0.227304 -0.159939 -0.015013 -0.362308 -0.096805 -0.068018 0.084798 -0.094369 0.247350 -0.218262 -0.063321 0.056022 0.250517 -0.123049 0.254044 0.093840 -0.090486 -0.291023 0.173532 -0.077443 -0.065549 -0.241469 -0.370213 -0.054397 -0.084462 0.139473 0.189988 0.349007 -0.069955 -0.179338 0.016876 -0.005828 0.045196 -0.024808 -0.146106 0.457981 -0.454508 0.052864 0.452455 -0.069939 -0.077407 0.249100 -0.006563 -0.064316 0.278414 0.037496 0.120497 -0.116738 -0.081833 -0.079475 0.067312 -0.148695 0.280970 -0.224937 0.056939 0.149785 0.062267 0.211785 0.068609 0.147269 -0.050643 0.000185 -0.035797 0.079808 0.096685
DupEdge -0.015591 -0.058110 -0.099286 -0.140953 0.185382 -0.012627 -0.441128 0.099720 -0.179204 -0.249675 0.052681 0.148726 -0.010436 -0.586136 -0.143643 0.124972 -0.240677 0.100295 -0.143027 0.195679 0.063935 0.143137 -0.051712 -0.092332 -0.102736 -0.262464 -0.061297 0.236645 -0.071149 -0.375118 -0.211717 -0.179889 -0.285962 0.075013 0.193392 -0.504228 -0.200456 0.232409 -0.028221 0.350957 0.119539 -0.079668 -0.014297 -0.104451 0.078021 -0.119595 -0.233514 0.085059 0.005635 -0.241910 0.192481 0.055292 -0.236004 -0.043727 -0.095637 0.174997 -0.407688 -0.303271 0.117533 -0.060685 0.232731 0.021999 -0.313063 0.048486 0.296151 0.524401 -0.229666 -0.262544 -0.261817 -0.250333 -0.152354 0.336941 -0.098413 0.193446 0.101248 0.206566 0.210887 0.506364 0.213694 0.425712 0.136118 -0.158531 -0.493112 0.286358 -0.094226 -0.617003 0.069350 0.245777 -0.163214 0.087379 0.506383 -0.130258 0.310216 0.478046 0.021752 0.320050 0.096875 -0.148991 0.417339 -0.700305 0.049869 0.038954 0.204523 -0.290077 0.293619 0.253072 -0.320768 -0.141685 0.189519 -0.216017 -0.024833 0.285134 -0.415794 -0.099106 -0.186351 0.313341 0.167698 -0.037423 0.231115 0.067553 0.164237 0.363786 -0.116318 -0.080786 -0.040515 0.103853 0.214198 0.235161
Drag -0.100274 -0.299011 0.037094 -0.214105 -0.140139 -0.482284 0.181439 0.288766 -0.076154 -0.152763 0.237856 -0.175007 0.202419 0.257609 -0.384863 0.126752 0.063731 -0.134777 0.089814 0.254065 0.240574 -0.093435 0.335971 0.084064 -0.049780 0.085590 0.197415 0.267875 -0.174436 -0.187436 -0.296402 0.061620 0.143127 0.654730 0.526524 -0.437226 0.525134 -0.332298 0.257966 0.203443 0.323584 -0.050693 -0.058222 0.393821 -0.319381 -0.365798 0.175288 0.143301 0.421163 0.451543 0.031929 -0.033684 0.273411 -0.073891 -0.614987 0.025256 -0.246047 -0.424689 -0.015793 0.156399 0.364416 -0.229432 0.150147 0.023407 -0.081155 -0.105778 -0.394521 0.158147 -0.156790 0.145685 -0.122351 0.233454 0.088336 0.191735 0.084716 0.270749 -0.178489 0.062465 -0.494653 -0.154234 -0.390008 0.391016 -0.028325 0.056852 -0.167562 -0.222534 -0.269194 -0.252335 0.126565 0.083204 0.321863 -0.152843 -0.008306 0.061311 -0.048557 -0.203282 0.147713 0.200785 0.302355 -0.497887 -0.169899 0.658115 -0.252818 -0.244601 0.121254 -0.276023 -0.118255 -0.262072 0.099323 0.286880 0.082824 0.225424 0.196850 0.087276 0.292344 0.182966 -0.065079 0.004692 0.526808 0.133072 -0.133232 0.018091 0.229221 -0.448909 0.022364 0.215227 -0.055147 0.112285
BlockEdit 0.060067 0.074063 -0.079409 -0.107936 0.264437 -0.171504 -0.388934 0.223870 -0.250044 -0.131690 0.076631 0.306550 0.156526 -0.518771 -0.133890 0.172148 -0.424466 0.223810 -0.282983 0.169211 -0.022925 0.423475 0.066370 0.175731 0.221493 -0.256981 -0.188599 0.338667 -0.019225 -0.280100 -0.240236 0.070684 -0.211593 0.168283 0.264880 -0.551691 -0.303956 0.046797 -0.100405 0.270444 0.262426 -0.143897 0.055033 -0.160586 0.068883 -0.188393 -0.138252 0.060924 -0.154882 0.037124 0.293907 -0.138890 -0.113188 -0.068467 -0.004218 0.269446 -0.378992 -0.353771 -0.171683 -0.201979 -0.045697 -0.032821 -0.124726 0.078610 0.326007 0.417554 -0.249620 -0.394764 -0.180101 -0.057263 -0.214617 0.338672 -0.121439 0.259473 0.099745 -0.016806 0.151643 0.433364 0.164872 0.373778 0.198955 0.022994 -0.580915 0.370033 0.161478 -0.482392 0.181091 0.055962 -0.393965 0.035406 0.204073 0.002202 0.208843 0.365722 0.042269 0.551456 -0.060146 -0.008772 0.223597 -0.770338 -0.086425 0.131848 0.039214 -0.339621 0.241805 0.211989 -0.304502 -0.202556 0.104228 -0.233113 -0.137264 0.234198 -0.426069 -0.128284 0.105294 0.256584 -0.046719 -0.037169 0.299137 -0.009380 0.202447 0.385182 -0.195501 -0.179958 -0.366712 0.101835 0.158064 0.505589
Explode -0.144204 -0.046399 0.007753 -0.163721 -0.134391 -0.066201 -0.083902 0.225435 -0.067863 -0.051896 0.114886 -0.289593 -0.160170 -0.029433 -0.320144 -0.029925 -0.098418 0.050858 0.100999 0.300475 0.012149 -0.107991 -0.111803 -0.163649 -0.128103 0.040588 -0.206082 0.100694 -0.059694 -0.040495 -0.116814 -0.242136 -0.025917 0.184148 0.096431 0.104527 -0.059167 0.191646 0.247394 0.144111 0.204921 0.108516 0.006319 0.130067 -0.047509 -0.109053 0.123982 0.046607 0.167555 -0.049322 0.133756 -0.160467 0.086229 0.068181 -0.090131 -0.212457 0.012663 -0.110536 0.051419 -0.018666 0.247444 0.064518 -0.191939 -0.221752 -0.239567 0.203040 -0.057853 0.092595 -0.029430 -0.185363 0.001910 -0.060831 -0.201664 -0.047097 0.111414 0.042785 0.121221 -0.005852 -0.080790 -0.063288 0.041379 -0.065593 -0.032048 0.056320 -0.210931 -0.101774 -0.144710 0.028010 0.015360 -0.103233 0.277300 0.068228 0.105515 0.098450 -0.150634 0.136054 0.139533 0.247306 0.248108 -0.261944 0.069330 0.148297 -0.232995 -0.092570 -0.057483 -0.099640 -0.149335 -0.313814 -0.056145 0.403340 0.126889 0.218524 -0.005142 -0.135976 0.321422 -0.054065 0.239517 -0.177650 0.173287 0.045299 -0.181221 -0.132447 0.044782 -0.133849 -0.049177 0.244069 0.087009 -0.157118
Loft 0.018034 -0.206414 0.019430 0.006854 0.085154 -0.111080 -0.239526 0.125473 -0.172585 -0.008462 0.074863 0.140433 0.241477 -0.263467 -0.004838 0.138041 -0.424867 0.067614 -0.089667 0.064382 -0.015243 0.171421 -0.001370 0.177860 0.078006 -0.178485 0.091848 0.261146 -0.061817 -0.023922 -0.197358 -0.001358 -0.134066 0.117541 0.013101 -0.174387 -0.000347 -0.061098 0.028474 0.010337 0.189152 0.085124 -0.179800 -0.017625 -0.187800 -0.260309 0.018163 -0.036595 -0.003659 0.101029 0.187097 -0.219772 0.194219 -0.079176 -0.172458 -0.029352 -0.275710 -0.151369 -0.042955 -0.120561 -0.061568 0.066318 0.019517 0.103253 0.071836 0.207513 -0.185973 -0.276345 -0.145995 0.273945 -0.048595 0.114562 -0.206368 0.149672 0.055016 -0.042927 0.007046 0.381663 0.116151 0.051198 0.081995 0.060438 -0.326075 0.036350 0.079622 -0.244773 0.121434 -0.053971 -0.058327 0.022659 0.089906 0.111729 -0.108895 0.025165 -0.029926 0.411427 -0.087427 -0.114707 0.285619 -0.504099 0.029028 0.218286 -0.005842 -0.034646 0.104182 0.004253 0.030206 0.079285 -0.040156 -0.011021 -0.255801 0.074521 -0.161621 -0.031010 0.088801 0.165166 -0.110352 0.028641 0.140064 -0.010738 0.168786 0.167816 0.010522 -0.042308 -0.158420 0.060471 0.102835 0.331172
Lines 0.417611 -0.120152 0.044514 -0.465069 -0.021508 -0.287345 -0.017471 0.001577 -0.041936 -0.270308 0.081618 -0.042439 -0.267576 0.082201 -0.303288 -0.054425 -0.080621 0.158762 0.042030 0.203364 0.148979 0.110198 0.126010 -0.020732 -0.059950 0.227332 -0.341528 -0.129002 -0.316076 -0.347775 -0.210106 -0.147599 -0.182143 0.312992 0.300079 -0.052129 0.026638 0.294408 0.254515 0.113765 -0.073454 0.245659 0.021654 0.233373 -0.243745 0.130080 0.004478 0.143405 0.096778 0.296505 -0.044249 -0.257210 -0.278934 0.239292 -0.201074 -0.033364 0.036079 -0.184506 -0.135588 -0.148670 0.502066 0.192793 -0.274033 0.100832 0.162130 0.147595 -0.202465 -0.160430 -0.146152 -0.193610 -0.046566 0.036554 -0.065938 0.237282 0.025161 0.397383 0.275339 0.241826 -0.330893 -0.030861 -0.048291 -0.042846 0.047741 -0.164862 -0.179104 -0.325690 0.117836 0.162883 0.027722 0.015714 0.254376 -0.016549 0.549335 0.414172 -0.033226 -0.011647 0.230535 0.370030 0.330545 0.024746 -0.009904 0.333453 -0.205962 -0.273265 -0.163967 0.190844 -0.350189 -0.479356 0.045871 0.190334 0.243103 -0.253523 -0.118113 0.057482 0.399329 -0.143269 0.114409 0.082801 0.037223 0.114974 -0.253211 0.012346 0.132526 -0.442112 -0.125374 0.103628 -0.076065 -0.045529
Point 0.097699 -0.200106 0.188047 -0.089271 -0.112347 -0.049003 -0.213723 0.248327 -0.290857 -0.008582 0.143134 -0.302556 -0.015635 0.022115 -0.258317 -0.089310 -0.369497 0.253494 0.016691 0.245932 0.046387 -0.218139 -0.048812 -0.186948 -0.115605 0.046421 -0.320836 0.071915 -0.295010 -0.001105 -0.212996 -0.468587 -0.258775 0.308101 -0.072388 0.198794 -0.043451 0.191863 0.359441 0.161787 -0.060476 0.454489 -0.167134 0.238438 -0.189389 0.118470 0.209614 -0.145649 0.010469 0.048190 0.197042 -0.444969 0.023511 0.078487 -0.047669 -0.471231 0.019200 -0.120168 0.165328 -0.283192 0.279958 0.301670 -0.162978 -0.057088 -0.315097 0.297048 0.076616 -0.218183 0.036582 -0.209648 -0.007224 -0.227135 -0.308279 -0.028581 0.010446 -0.053118 0.367851 0.146888 -0.076268 -0.039217 0.073734 -0.069771 -0.077952 -0.165842 -0.188950 -0.246397 0.133942 0.120455 -0.048881 -0.112020 0.249506 0.214194 0.140075 0.142035 -0.145576 0.343935 0.041693 0.227496 0.314046 -0.192232 0.321445 0.361527 -0.219445 -0.199485 0.003775 -0.078441 -0.127268 -0.154918 -0.285984 0.665814 -0.155821 0.087375 -0.182635 -0.116962 0.437620 -0.061770 0.163474 -0.126969 0.052614 -0.079660 0.009829 -0.084202 0.078854 -0.182728 -0.077355 0.172717 0.188275 -0.166330
Rectangle -0.126524 0.020070 0.172091 -0.317242 0.007634 -0.538045 0.113970 0.252869 -0.084060 0.023447 0.086893 -0.092798 0.084904 0.314754 -0.327399 0.127215 0.128097 0.126039 -0.210953 0.216299 -0.019584 -0.041882 0.204337 0.144110 0.196128 0.083448 -0.018853 0.164090 -0.238194 0.017463 -0.075651 0.162342 0.189475 0.535154 0.233064 -0.029951 0.287705 -0.350341 0.297592 0.202459 0.047599 0.101549 -0.024109 0.337482 -0.350150 -0.123604 0.291345 -0.031909 0.187314 0.495015 0.076910 -0.230917 0.193779 0.017198 -0.558508 0.001128 -0.128389 -0.312589 -0.214665 -0.130057 0.033218 -0.211356 -0.053870 0.076765 -0.283724 -0.195499 -0.299020 -0.023845 0.107142 -0.020659 -0.157228 0.109313 -0.237061 -0.004414 0.174693 0.037786 -0.047228 -0.257152 -0.428795 -0.285262 -0.258977 0.453483 0.075656 0.145103 -0.013775 -0.034746 -0.087836 -0.280027 -0.035524 0.063127 0.079760 0.007573 -0.103850 -0.114032 -0.017551 0.080321 0.026448 0.378086 0.124586 -0.282766 -0.123017 0.570030 -0.419304 -0.350310 0.090684 -0.227099 -0.138176 -0.315419 -0.045833 0.413113 0.205416 0.035186 0.158660 -0.008100 0.617514 -0.082446 -0.165654 -0.150304 0.426899 -0.042247 -0.169725 -0.157162 0.160342 -0.298618 -0.202691 0.188517 -0.021541 -0.016905
BooleanUnion -0.392210 0.062407 -0.088909 -0.253252 0.463570 -0.318743 -0.380946 0.321275 -0.317413 -0.158880 -0.070046 -0.105471 0.198806 0.015457 -0.335913 0.019322 -0.596978 0.236176 -0.538209 0.400479 -0.149426 0.077885 0.024533 0.340572 0.157110 -0.239502 0.085592 -0.110082 -0.119630 -0.040634 0.028195 -0.407993 -0.398386 0.373904 0.082050 0.284099 -0.240190 -0.133251 0.232195 -0.042914 -0.058009 0.425551 0.058659 -0.042291 -0.141041 0.084771 0.285826 -0.121787 -0.117813 0.258101 0.003596 -0.292705 0.253987 -0.005681 0.047522 0.017252 0.092930 -0.325956 0.037981 -0.174708 -0.095315 -0.382349 -0.449533 -0.063912 -0.399678 -0.163015 -0.020777 -0.224263 0.261944 -0.338206 -0.021496 0.238487 -0.702107 0.048805 -0.042572 -0.472983 0.046906 0.026845 0.267527 0.208502 0.289255 0.126922 -0.686722 0.115472 -0.163905 0.010491 0.285385 0.240719 -0.524802 0.059848 -0.143929 0.124012 0.104866 0.163234 0.353649 0.426913 -0.070542 0.354759 0.181512 -0.324644 0.462159 0.426460 -0.397262 -0.181086 -0.066610 0.197163 -0.402308 0.040933 -0.252387 0.780607 0.171733 0.300490 -0.308904 0.084595 0.702587 0.074239 0.081823 -0.278335 0.657772 0.018237 -0.082166 -0.228294 -0.481920 -0.149503 -0.487827 0.284440 0.168059 0.030466
Project -0.202187 -0.247193 0.194663 0.023858 -0.032845 -0.333923 0.093186 0.149093 -0.171638 0.080972 0.356727 -0.214568 0.306944 -0.206801 -0.282133 0.187449 -0.011073 0.001875 0.106738 0.161244 0.026297 0.058855 0.201610 0.017246 -0.066962 -0.164742 -0.028245 0.389933 -0.076917 -0.064203 -0.150600 0.192931 -0.004706 0.555539 0.202786 -0.191880 0.372713 -0.262190 -0.004819 0.264855 0.437983 -0.204379 -0.171687 0.194335 -0.079607 -0.354658 -0.126427 0.047045 0.093507 -0.020993 0.283815 -0.015047 0.265480 -0.055485 -0.553781 -0.180005 -0.269029 -0.259861 0.067315 -0.002786 0.026172 -0.113940 0.205950 0.082426 -0.212169 0.120591 -0.260746 0.107905 -0.251147 0.117914 -0.322682 -0.063698 -0.036970 -0.002979 0.214364 0.203339 -0.131780 0.034652 0.062413 -0.197294 -0.219629 0.243363 -0.166750 0.264157 -0.018027 -0.295349 -0.228855 -0.115138 0.215219 0.112370 0.256749 -0.001492 -0.286200 -0.078637 -0.168098 0.352156 0.004720 -0.047587 0.303676 -0.813794 -0.085022 0.378454 0.001228 -0.343567 0.108905 -0.240739 0.012844 -0.085558 0.031009 0.068448 -0.147097 0.181584 -0.098195 -0.144039 0.006772 0.188086 -0.081440 -0.018185 0.298038 0.110435 0.077278 0.022248 0.104360 -0.134959 -0.002729 0.081549 0.020278 0.068564
CurveThroughPt -0.237541 -0.052682 -0.164366 -0.222215 0.115355 0.128528 -0.532560 0.370076 -0.304833 -0.275677 -0.131501 -0.065998 -0.123671 -0.430366 -0.341521 0.008655 -0.370863 0.030343 -0.097636 0.376176 -0.060886 -0.295186 -0.215176 -0.275870 -0.302013 -0.197551 -0.049772 0.247755 -0.135808 -0.372153 -0.196238 -0.591840 -0.250923 0.063510 0.225507 -0.413421 -0.339188 0.411114 0.332232 0.520928 0.030690 0.232596 0.139615 0.013258 0.157521 -0.071952 -0.007299 -0.076361 0.216456 -0.308418 0.276403 -0.174017 -0.171907 -0.057201 0.111273 0.059765 -0.362662 -0.403912 0.290751 -0.071256 0.529274 0.087345 -0.532493 -0.283134 0.108758 0.625752 -0.045589 -0.188351 -0.128611 -0.527335 0.020996 0.296978 -0.303150 0.204024 0.115379 0.043920 0.373526 0.389117 -0.073334 0.520071 0.307352 -0.298606 -0.484525 0.260950 -0.169913 -0.568216 0.004192 0.239506 -0.265011 -0.076527 0.620311 -0.130025 0.453662 0.532447 -0.007844 0.264830 0.197607 0.014161 0.456901 -0.611611 0.227540 0.071874 0.044475 -0.304211 0.353082 0.089593 -0.271877 -0.351016 0.119032 0.194030 0.110259 0.616419 -0.321072 -0.055747 0.086955 0.251265 0.487711 -0.288834 0.442230 -0.031238 -0.024943 0.258427 -0.150339 -0.111474 0.034735 0.388360 0.406453 -0.027233
Plane -0.033419 -0.254230 0.082949 -0.200625 -0.078263 -0.215963 -0.117575 0.006432 0.010535 -0.127782 0.165320 -0.100249 -0.055907 -0.157506 -0.130324 0.093621 -0.055168 -0.026413 0.071851 0.138060 0.147343 0.032117 -0.018365 -0.049377 -0.133893 -0.025964 0.007516 0.044587 -0.111692 -0.149820 -0.199237 -0.098559 -0.102409 0.157388 0.036776 0.100512 0.149951 0.125652 0.071960 0.014736 0.155968 0.124272 -0.201785 0.178122 -0.273952 -0.163493 -0.038041 0.161600 0.168212 0.005103 -0.045917 0.025184 0.139020 0.041729 -0.373815 -0.132573 -0.126805 -0.120887 0.037524 0.067317 0.184707 0.091084 -0.125283 0.019587 -0.095743 0.144720 -0.214185 0.021738 -0.140718 0.080812 -0.082234 0.070933 -0.170567 -0.013262 0.057541 0.219358 -0.033624 0.223367 0.027456 -0.112471 -0.126630 0.020386 -0.022454 -0.045627 -0.257566 -0.212963 -0.130137 -0.010568 0.157325 0.080945 0.313628 -0.045728 -0.001154 0.034740 -0.093633 0.061250 0.117406 0.078446 0.416046 -0.325941 0.047241 0.269655 -0.053847 0.014956 -0.026789 0.014868 -0.082697 -0.105796 0.038455 0.158581 0.069080 0.014272 -0.031215 -0.013800 0.019531 0.066035 0.007019 0.042080 0.065673 0.208053 -0.058127 -0.053935 0.134462 -0.163582 -0.003580 0.104948 -0.034901 -0.069972
OffsetSrf -0.248076 -0.243899 0.225820 -0.070000 -0.097146 0.023835 -0.154798 0.291783 -0.269274 0.054335 0.078767 -0.288473 0.080581 0.005641 -0.246222 0.067640 -0.197001 0.023815 -0.037152 0.236436 0.050837 -0.295058 -0.023139 -0.101188 -0.040945 -0.160260 -0.090096 0.126664 -0.185004 0.086696 -0.218958 -0.281407 -0.235629 0.330541 -0.118757 0.226541 0.085336 0.069728 0.233471 0.225977 -0.005399 0.374792 -0.175442 0.271677 -0.144713 -0.119886 0.220955 -0.115609 0.117737 -0.055476 0.147951 -0.153737 0.354799 -0.033683 -0.069513 -0.391572 -0.058201 -0.116048 0.174498 -0.071411 0.181702 0.175419 -0.067913 -0.231658 -0.367877 0.197603 0.110559 -0.130143 0.009660 -0.067662 -0.054199 -0.195994 -0.284502 -0.149190 -0.092767 -0.123398 0.155945 0.162148 -0.010810 -0.108442 -0.064445 0.057607 -0.092847 -0.019469 -0.215144 -0.159274 -0.131645 -0.021010 -0.026857 -0.095684 0.134735 0.076103 -0.190555 -0.018107 -0.156917 0.270644 0.026768 0.155858 0.324600 -0.326389 0.304157 0.356250 -0.122384 -0.147002 0.027618 -0.223064 -0.041097 -0.195396 -0.195591 0.601584 -0.157357 0.363384 -0.033170 -0.151432 0.370510 0.011316 0.047992 -0.133541 0.181889 -0.063624 -0.006888 -0.167732 0.079631 -0.160859 -0.077715 0.267057 0.155697 -0.174619
Pull -0.414157 -0.489495 0.217007 -0.256036 0.001928 -0.527048 0.017101 0.403782 -0.193197 -0.215777 0.208471 -0.268169 0.344495 0.231309 -0.427234 0.316529 0.054169 -0.267034 -0.079061 0.249934 0.296681 -0.323966 0.418248 0.138972 -0.001640 -0.122239 0.485868 0.261938 -0.267129 -0.156983 -0.489798 0.032830 -0.024599 0.834733 0.484636 -0.380737 0.686346 -0.426486 0.287381 0.273841 0.247730 0.175404 -0.219254 0.534085 -0.360540 -0.509741 0.243756 0.085914 0.554709 0.443822 -0.093647 0.140909 0.559292 -0.198725 -0.743942 0.027180 -0.433785 -0.648336 0.136119 0.238012 0.417739 -0.359518 0.106334 -0.020577 -0.231237 -0.066316 -0.328382 0.122003 -0.163735 0.207370 -0.244827 0.416379 -0.073059 0.005930 -0.062585 0.144783 -0.293053 0.182459 -0.437179 -0.019276 -0.520731 0.537668 -0.088526 0.101068 -0.273392 -0.254324 -0.350814 -0.296751 0.091874 0.202007 0.406918 -0.313213 -0.227110 -0.010010 -0.012588 -0.219896 0.206592 0.182918 0.542934 -0.761726 -0.036800 0.878224 -0.151315 -0.356512 0.227696 -0.396759 -0.139961 -0.208057 0.018919 0.502309 0.082397 0.570371 0.193355 0.078271 0.344280 0.286057 -0.134362 0.021261 0.757671 0.080766 0.017337 -0.096314 0.227369 -0.523146 0.069554 0.293558 0.000649 0.084224
Sweep2 -0.021989 -0.220873 0.006469 -0.186563 0.116567 -0.257015 -0.243760 -0.032930 -0.046162 -0.271878 0.087458 0.088354 0.133814 -0.109882 0.043821 0.111247 -0.069383 0.015915 -0.183645 0.015751 0.207812 0.040925 0.048684 0.104118 -0.065488 -0.059238 0.320276 -0.025153 -0.153946 -0.190561 -0.195431 -0.071930 -0.200561 0.179711 0.117554 -0.104394 0.201991 -0.061834 0.032075 -0.009913 -0.106694 0.118814 -0.232418 0.098268 -0.328382 -0.023338 0.015571 0.166270 0.098280 0.184661 -0.186358 0.111216 -0.005385 -0.018260 -0.393565 0.141852 -0.217401 -0.194528 0.056604 0.077620 0.095585 -0.120815 -0.211115 0.227747 0.033125 -0.050980 -0.309997 -0.088841 -0.064280 0.027278 -0.079895 0.349322 -0.180209 0.090091 -0.054681 0.183469 -0.104267 0.315545 0.021989 0.120955 -0.173968 0.099644 -0.170297 -0.079592 -0.225649 -0.319739 0.076357 0.073507 0.018627 0.224838 0.236363 -0.125673 0.059029 0.163179 0.165998 -0.082944 0.021025 -0.095352 0.401125 -0.233150 0.142082 0.361025 -0.069874 -0.061293 0.133712 0.137207 -0.192683 0.232944 0.086858 0.080840 0.039745 -0.031197 -0.113007 0.148031 -0.085928 0.252984 -0.086617 0.094153 0.205896 0.150953 0.119252 0.059177 0.019430 -0.166063 0.014252 -0.000131 -0.031843 0.126101
DupBorder -0.119504 0.061274 0.101241 -0.122355 -0.067713 -0.269539 -0.070362 0.164474 -0.033707 0.049253 0.135129 -0.127231 -0.051294 -0.098054 -0.209636 0.086265 0.013219 0.127293 -0.056787 0.188288 -0.004500 0.044298 -0.053400 -0.081437 0.044178 -0.031055 -0.174200 0.207594 -0.067142 0.067673 -0.058968 -0.007700 0.081281 0.177354 0.008196 0.077468 0.004413 -0.002754 0.175590 0.148244 0.220770 0.017374 -0.075643 0.166842 -0.206560 -0.157261 0.114977 0.010900 0.103517 0.043673 0.156385 -0.130162 0.098780 0.052531 -0.358028 -0.203539 -0.135679 -0.118844 -0.108152 -0.117378 -0.012932 0.017508 -0.082375 -0.054227 -0.271943 0.130268 -0.181324 -0.030960 0.051868 -0.039946 -0.108379 -0.012386 -0.256461 -0.168606 0.198220 0.008349 0.045966 -0.061790 -0.032850 -0.195778 -0.072884 0.126473 0.030887 0.148506 -0.115279 -0.121902 -0.135033 -0.170519 -0.013118 0.017874 0.248921 0.098042 -0.149033 -0.093663 -0.172792 0.240681 0.030477 0.252746 0.248904 -0.411885 -0.045758 0.272155 -0.191451 -0.146447 0.081106 -0.157628 -0.067781 -0.221088 -0.054359 0.297594 0.047192 0.091685 -0.003433 -0.180768 0.309709 -0.038588 -0.055737 -0.143255 0.123492 -0.004098 -0.056491 -0.073363 0.131196 -0.068149 -0.196896 0.146937 0.063229 -0.040052
DeleteSubCrv 0.084646 0.100868 0.012110 -0.082854 0.007146 -0.318163 -0.129207 0.075581 0.038125 -0.155381 0.232068 0.019879 -0.019844 -0.140887 -0.070099 0.030298 0.077335 0.223790 -0.152886 0.089428 0.082515 0.154911 0.032462 -0.103266 0.022987 -0.013219 -0.077729 0.268424 -0.115306 -0.087833 0.058763 0.011792 0.089680 0.190613 0.111088 -0.251178 0.036412 -0.038248 0.100370 0.207527 0.127840 -0.167312 -0.054359 0.082900 -0.213795 0.018456 -0.004311 0.121686 0.029227 0.054752 0.090084 0.007155 -0.212220 0.062327 -0.415146 -0.023101 -0.245754 -0.128790 -0.045444 -0.107924 -0.063091 -0.035580 -0.093296 0.192867 -0.102810 0.092221 -0.324967 -0.091109 0.016664 -0.229142 -0.081310 0.218955 -0.120486 -0.101667 0.199814 0.238480 0.029166 0.003154 0.007269 -0.053634 -0.152419 0.133624 -0.015094 0.120826 -0.150829 -0.312520 -0.046098 -0.094148 -0.041431 0.072812 0.361644 -0.012277 -0.006040 0.121858 -0.078906 0.108733 0.012706 0.045169 0.248829 -0.410820 -0.147376 0.291575 -0.180603 -0.209581 0.265537 0.045305 -0.186592 -0.042757 0.027347 0.070469 0.031555 -0.118759 -0.105086 -0.069846 0.012848 0.120544 -0.142274 -0.054983 0.084864 -0.032330 0.081478 0.108753 0.135867 -0.032933 -0.178238 -0.049093 0.105847 0.058949
NetworkSrf -0.117146 -0.379623 0.156829 -0.079974 -0.044482 0.152247 -0.412700 0.344301 -0.464897 -0.066179 0.071110 -0.285184 0.156623 -0.126988 -0.216570 -0.051873 -0.563553 0.141490 -0.054476 0.312903 0.024587 -0.366183 -0.127890 -0.149783 -0.214569 -0.158435 -0.134238 0.124397 -0.286864 -0.064619 -0.315554 -0.621884 -0.474301 0.325889 -0.082197 0.164551 -0.041512 0.241130 0.355071 0.283836 -0.114371 0.564703 -0.195196 0.218363 -0.171127 0.009796 0.217412 -0.155038 0.051155 -0.132498 0.216394 -0.372479 0.202690 -0.013317 0.088365 -0.432948 -0.109804 -0.162879 0.337569 -0.192191 0.349276 0.298055 -0.239955 -0.197303 -0.299293 0.340645 0.121151 -0.307680 -0.062594 -0.229152 0.028547 -0.153512 -0.417941 0.076260 -0.135741 -0.117634 0.349284 0.450922 0.005705 0.130011 0.128282 -0.151765 -0.382725 -0.149728 -0.254753 -0.402415 0.115235 0.204655 -0.087729 -0.141964 0.232604 0.152063 0.074274 0.226832 -0.032405 0.423963 0.006952 0.019245 0.479716 -0.346566 0.526447 0.404328 -0.170739 -0.180506 0.059184 -0.068506 -0.107085 -0.072708 -0.243734 0.689361 -0.269502 0.363633 -0.249835 -0.086309 0.379547 0.113946 0.263428 -0.165037 0.200889 -0.069916 0.047774 -0.017054 0.005148 -0.204586 -0.024780 0.315679 0.277867 -0.130285
ArrayLinear 0.129054 0.269004 0.014425 -0.132185 0.011993 -0.510580 0.008363 0.172310 0.049001 -0.126893 0.252408 -0.024770 -0.086935 0.036619 -0.194263 -0.044367 0.119994 0.332202 -0.198551 0.167255 0.000649 0.185626 0.071555 -0.104417 0.107195 0.078632 -0.230226 0.317065 -0.150092 -0.014367 0.149268 0.043266 0.259558 0.284096 0.205683 -0.251883 -0.018029 -0.122315 0.246710 0.260952 0.167354 -0.175794 0.089167 0.139129 -0.266347 0.079168 0.109867 0.069150 0.026774 0.219057 0.175763 -0.126456 -0.255516 0.119489 -0.490280 -0.041700 -0.173266 -0.186419 -0.145276 -0.236020 -0.112494 -0.099491 -0.092383 0.201150 -0.196923 0.025540 -0.363181 -0.065346 0.129327 -0.335497 -0.054683 0.220153 -0.155726 -0.136246 0.281372 0.176647 0.031342 -0.262710 -0.190145 -0.141810 -0.144781 0.287504 0.083392 0.178943 -0.100558 -0.201141 -0.042060 -0.206159 -0.162798 0.042220 0.358288 0.060166 0.018585 0.112355 -0.099771 0.094186 0.019557 0.236694 0.153685 -0.390441 -0.223642 0.382314 -0.403917 -0.306358 0.269869 -0.005230 -0.208574 -0.232204 -0.052307 0.236653 0.127251 -0.177982 -0.037271 -0.104317 0.308796 -0.015388 -0.190548 -0.148958 0.174939 -0.092090 -0.042725 0.032353 0.185054 -0.070576 -0.319339 -0.019679 0.092078 -0.000603
DupFaceBorder -0.164659 -0.038514 0.112653 -0.036539 0.006994 -0.296214 0.043037 0.186258 -0.197048 0.110687 0.257481 -0.142630 0.197749 -0.248005 -0.330769 0.155649 -0.034676 0.118521 -0.031730 0.237180 -0.038729 0.187208 0.172149 -0.028795 0.067964 -0.190904 -0.251828 0.340546 -0.067017 -0.096225 -0.076980 0.159800 0.002655 0.481472 0.171636 -0.252983 0.147339 -0.220526 -0.030499 0.317860 0.415225 -0.236640 -0.036226 0.121036 -0.001762 -0.311039 -0.086182 0.013782 -0.000740 -0.071071 0.350713 -0.054296 0.141376 -0.031668 -0.349807 -0.148027 -0.230019 -0.256460 -0.024473 -0.084269 -0.043031 -0.092659 0.120570 0.016249 -0.174200 0.166053 -0.171397 -0.030613 -0.140280 -0.038318 -0.326532 -0.078411 -0.032491 0.004717 0.250337 0.064962 0.027221 0.017255 0.131857 -0.124748 -0.101295 0.192416 -0.283508 0.358270 0.021169 -0.309183 -0.184835 -0.079705 0.024747 0.050838 0.231135 0.016501 -0.178610 -0.003575 -0.148780 0.477615 -0.006981 0.079487 0.151859 -0.797507 -0.090508 0.285838 -0.002751 -0.384855 0.116907 -0.149016 -0.138498 -0.233443 0.011502 0.065396 -0.096496 0.200781 -0.185555 -0.220854 0.152670 0.152175 -0.073192 -0.095081 0.257953 0.092256 0.046701 0.106937 0.006467 -0.151848 -0.183851 0.130198 0.093954 0.099583
ArrayCrv 0.060716 0.051572 0.056081 -0.117971 0.009820 -0.268241 0.061811 0.137825 -0.070478 0.002459 0.177478 -0.067110 0.006874 -0.139574 -0.273745 0.046649 -0.027698 0.166863 0.000380 0.203666 -0.037122 0.195214 0.132953 -0.016940 0.040899 0.013837 -0.305738 0.224489 -0.093641 -0.123963 0.001676 0.125399 0.036385 0.330834 0.232841 -0.207248 0.016960 -0.044824 0.089503 0.237257 0.274553 -0.142858 0.057645 0.067785 -0.002797 -0.118189 -0.079054 0.037734 -0.014134 0.055498 0.242307 -0.164579 -0.073007 0.084598 -0.266785 -0.047768 -0.119381 -0.172409 -0.099794 -0.148802 0.066935 -0.025082 0.025590 0.070249 -0.047084 0.134426 -0.171146 -0.064160 -0.098384 -0.145381 -0.171981 -0.034420 -0.030771 0.042341 0.210960 0.169219 0.104709 -0.018167 -0.031754 -0.090340 -0.015615 0.088468 -0.117694 0.212121 0.027151 -0.241904 -0.057440 -0.027198 -0.000748 -0.008463 0.180288 0.030640 0.051404 0.094704 -0.126697 0.314668 0.061405 0.178262 0.115582 -0.448083 -0.176389 0.175443 -0.105459 -0.337403 0.060697 -0.045338 -0.166956 -0.313021 0.004272 0.031385 0.053242 0.000623 -0.140004 -0.122508 0.224304 0.012241 -0.022882 -0.046074 0.121025 0.018386 -0.065200 0.060997 0.050491 -0.157047 -0.181713 0.067614 0.037929 0.079758
Pipe 0.040448 0.170534 -0.058420 -0.101547 0.112302 -0.234130 -0.134470 0.144559 -0.024062 -0.148851 0.117505 0.075868 -0.050212 -0.137972 -0.124294 0.013678 -0.038294 0.162829 -0.167184 0.115597 0.052451 0.196974 0.053971 0.006257 0.099829 -0.010451 -0.125816 0.170976 -0.066103 -0.135019 -0.051693 0.007194 0.005998 0.143834 0.219159 -0.303979 -0.135735 0.009632 0.024014 0.167669 0.133378 -0.126076 0.077327 -0.021577 -0.024875 0.008384 0.017935 0.086420 -0.012800 0.105448 0.087020 -0.017955 -0.201646 -0.001898 -0.140108 0.150220 -0.156395 -0.201377 -0.113959 -0.090241 0.015437 -0.114918 -0.120482 0.086448 0.064256 0.149683 -0.207716 -0.097163 -0.001767 -0.208870 -0.074898 0.242152 -0.045276 0.047922 0.115215 0.065159 0.060653 0.043885 -0.040411 0.133269 0.010734 0.075573 -0.146719 0.207954 -0.030987 -0.216935 0.049282 -0.019108 -0.219242 0.041574 0.229316 -0.017892 0.167563 0.226233 0.017506 0.110718 0.027435 0.115321 0.117005 -0.326892 -0.110707 0.165216 -0.132632 -0.226659 0.165116 0.098141 -0.263540 -0.139279 0.045240 0.021212 0.077528 0.060062 -0.160695 -0.081747 0.124252 0.084976 -0.010160 -0.064724 0.210348 -0.003300 0.044275 0.128566 -0.041146 -0.123997 -0.197326 0.015312 0.051703 0.162201
